s,0.1886301,-0.2958193,1.2970132,-0.30669343,0.42315173,-0.84503925,0.5912259,-0.5732567,-0.545874,-1.3778667,0.106502086,-0.59781814,3.005261,0.512977,0.25874528,-1.6063275,0.08343621,0.9457677,-1.9356055,-3.7966642,1.4654833,-0.04776719,-0.7642614,0.97766525,-0.41896567,0.53820837,-0.029068308,-0.6392157,-0.96786255,0.41963148,0.023023441,-0.39414185
A,0.108624384,2.3934376,-2.5151057,-0.5058145,-1.3981553,0.68444324,-0.01907167,0.87610584,1.4360366,1.1805385,-0.7378967,0.17193992,-0.3205854,0.76018244,0.1534076,-0.04991164,0.18789156,-1.5243009,0.8322268,0.3949228,-1.2799312,0.21125054,-0.66340095,0.55747944,-0.7014056,-0.3778373,0.22573383,-1.58847,0.04694584,0.047540314,0.38316226,-1.1914881
C,1.4748347,1.0559051,-1.5306352,-0.2585944,0.48969543,-0.9010587,0.74567795,-1.091301,0.0709465,1.4490855,0.028414499,1.1592195,-0.14715439,-0.6633633,0.39652485,-0.10407003,-0.2830787,1.6957421,0.62136316,-1.2387735,1.3587878,-0.7829338,-1.359937,1.4182105,0.7001952,-0.051268317,0.042155728,0.6748297,-0.8581046,1.1286985,0.3045043,-0.84389275
D,-0.44706735,-0.3077495,0.27084163,0.009168705,-0.256363,1.651733,0.17312235,1.106453,0.008376431,0.8752393,-0.6751978,-0.7994266,0.7464323,-1.7962317,-0.2924258,0.014207431,0.1839678,-0.62512916,1.6336037,0.5799888,0.78555447,-0.14843021,0.77448565,0.06886537,-0.854065,1.9504248,0.107869044,1.5405262,0.37215582,1.0979872,-0.7814804,-1.2641505
E,-1.5516915,-0.094851635,-0.99413335,-0.8908989,-0.604548,-0.7287518,0.904639,-0.37895212,-0.5693982,0.71986675,-0.962062,0.09322008,1.2374557,0.43711874,0.35135978,-0.3524812,-0.25071177,-1.5149797,1.182338,-0.7489196,-1.1872412,-0.3792127,-0.8385082,-1.5261905,-1.6673046,-1.0048428,-0.62254006,1.1416683,-0.94120693,0.21601193,-1.4643939,0.7176932
F,-0.4981913,-0.88855475,0.17269576,-0.22258115,-1.08832,1.5838687,0.18742636,0.4912317,-1.064804,-0.27224904,-0.4611077,0.8381026,1.4193934,-0.14139216,0.44584164,-2.555051,-0.7333847,0.4892503,-0.40284818,-0.23654215,0.7262819,0.2912328,0.10357348,-0.53386617,-1.0112733,-0.81208223,-0.81378716,0.2285407,1.0741408,-0.031451117,0.8369001,0.832108
G,0.31207383,-0.03711269,0.83034015,0.44360322,0.51254267,0.2791473,0.88738525,0.29728478,-0.51162344,1.4946679,-0.052901696,0.04061813,-1.9271069,0.75363404,0.6157395,1.8303055,-1.2829558,0.21984436,0.3825699,0.019293375,-1.0293072,0.5584554,0.4807228,-0.589855,0.72778666,-0.6905927,0.07842263,-0.6547728,-0.104174875,-0.6725789,0.7459491,0.8153483
H,0.2685302,1.3172023,-0.5917192,0.22954845,0.15029056,-0.6152993,3.3015695,1.538128,1.4230721,-0.2791394,-0.15070409,-0.35896108,1.2144054,0.88540983,0.049424585,0.7598976,1.0273622,1.4046361,-0.29356572,1.80604,0.34889027,0.99903053,-0.60248333,-1.158806,-2.2134585,-1.1044463,1.7904834,0.90049547,-1.6343143,1.7661797,-0.6649876,-0.8287551
I,0.9662373,-0.047347285,-0.056477085,-1.1760103,-0.05312398,1.4824195,1.2530754,-0.86318505,2.358313,-0.8035143,1.1285528,-1.5008106,0.23206702,0.51662165,0.30000645,0.48876256,-0.19424789,-1.416851,-0.4331306,-2.3119454,2.624942,1.3897741,-0.035106666,-1.1387746,-0.3844166,-0.37620828,0.04414842,0.088551156,-0.1177755,0.17536455,0.13941579,-0.3111869
K,-0.17416239,-0.2524139,0.12948643,0.4023585,-0.49729085,0.027373228,2.0678136,1.0834773,-0.24079056,1.0112708,-0.20221215,0.8837205,-0.30894372,-3.3891654,-0.369499,1.0903578,-0.052873686,-0.28280708,0.22386834,0.66333115,0.5840819,-0.3460672,-0.98198205,1.3045775,0.25169918,0.24194208,-0.63417065,-1.0543747,-0.174705,1.4534565,-1.1220784,-2.401077
L,-0.5495297,0.88535625,-1.5071242,0.6274145,-0.82623315,0.5635891,0.9887725,-0.78657377,-2.5204213,0.71638507,-0.8495925,-1.2553424,1.3441713,1.0283172,0.055560943,0.50554705,-0.30473796,1.1362553,0.12091272,-0.021792527,-0.5253283,-0.9270884,-0.099995896,-0.4317643,0.7649523,-0.5765826,-0.35872576,1.4212698,-0.71528167,1.5840621,-0.48094064,-1.3072052
M,0.500943,-0.29028946,1.071919,0.18902192,0.37798947,-0.23698734,1.6203325,-0.7317988,-0.8803081,1.3548013,0.8642281,0.30434865,1.4340373,0.8458689,0.2234387,1.1479926,0.6810088,-0.12656754,-0.56888664,-0.13142002,-0.40101475,0.58591384,0.15431008,-0.38206854,1.0333875,-0.36808687,0.085165136,0.03371841,-0.13211302,0.37979165,-0.08734093,1.1692508
N,-0.14897892,0.22952293,0.3538092,-1.1044055,-0.38796696,1.1887981,-0.86712503,0.37280038,0.1914651,0.3609974,-0.14351076,-0.1832107,0.30526295,-1.9585214,-2.6600764,0.98581,0.5384966,-1.2951746,0.74203473,1.5759292,-0.026417812,0.830902,0.30708283,-0.1753448,1.4520606,-0.9382505,0.18343236,1.4156289,1.0705163,-0.4512905,0.4875292,-2.1510687
P,0.2472103,0.27748,-0.57744175,-0.1258513,0.1467188,0.559123,-1.2212559,1.8665446,-1.8161112,-1.4607215,-0.36278102,-0.245549,0.79161686,-1.9169948,1.4920254,-0.2746543,0.30745924,-0.86178887,0.48634157,1.4367584,-0.061878335,-1.5590678,-2.7668417,-0.9224559,0.5875557,-0.5020318,0.58212423,0.033251647,-0.015778527,1.388912,-0.048618477,-0.23086686
Q,0.49390653,0.14177367,-1.5417281,-0.32866278,-1.2011064,-1.0132458,-0.41693157,0.92633665,0.34827325,1.5884624,0.5354062,1.1597961,-0.5575171,-0.61838347,0.8237533,-0.52615994,-0.8445666,-0.30824453,-0.16842818,1.0566987,0.22256012,1.041869,0.22235614,2.0204804,0.6128415,-1.0655385,-0.2070824,-2.105187,-1.6922189,0.703037,-0.64443034,-1.7174385
R,-0.65320915,-1.4968549,0.22033174,0.69383615,0.7242864,0.5008311,0.67281806,1.5314181,-0.67532533,-1.0739576,-0.66018164,-0.13853918,-0.5730958,-0.40592426,0.419414,0.5956009,0.83607125,-0.7158369,-0.38479134,-0.8411239,0.28586194,0.13830358,0.39221075,-0.18389462,1.9662375,0.09154144,0.47807986,1.2245152,-0.97726965,-1.0318464,0.79048413,-1.9162652
S,-1.9655863,-0.801219,-0.74147844,1.635891,0.41108716,1.5049901,0.22652513,0.06307725,-1.4077815,-0.12901302,0.6438468,-0.1378056,-0.9903911,-0.06479686,0.13506171,-0.42997843,0.14960478,0.6918022,-0.09984133,-0.62552977,1.5231966,0.27429137,3.136152,-0.20213488,-1.3989829,-1.0526813,1.3716038,-0.68718165,0.0720273,0.052639917,1.7649664,-1.063892
T,-1.3502948,0.06446423,-0.14773831,0.034983605,0.68280494,0.19354452,-0.8889413,-0.98715633,0.04231376,-0.7553141,0.66811895,0.6914885,0.30767715,0.05259887,1.1086996,1.9569727,-0.71026397,0.69485605,0.11045847,-1.1058007,-0.16511929,-0.8759085,0.2798956,0.4600831,-0.8344141,-0.30332226,0.18998337,-0.37592804,-1.6547714,2.3045728,0.0045326045,-0.020678068
V,0.17382115,-1.6335968,0.0472049,0.16857839,-0.14117771,0.74802524,0.17758647,-0.19325064,-1.547464,-0.013716594,0.638844,-1.1403221,-0.7548353,-0.40541056,-1.2509431,-0.9430985,1.8917675,0.6056178,-0.9062539,-0.6526702,-0.42404458,1.0253366,-0.45632693,-0.8314396,0.89886266,0.2472817,-1.1981599,-0.12122156,1.9495486,-0.59813714,-0.3010185,-0.82523096
W,-0.41883725,0.84816366,-1.386685,0.6323504,-0.42892206,1.362383,0.46768588,-0.49327436,-1.6849163,-0.24201238,2.2224586,-0.28675067,1.5788238,-0.69184804,-0.75077236,0.033886567,0.25318924,-0.6432439,1.9948536,1.0842736,-0.40432522,1.119745,0.5185567,0.31534627,-0.2814679,-0.9620899,-1.419508,-0.63693047,1.0095843,0.53654087,-0.440372,-0.45607823
Y,1.1173903,0.3646005,-0.90095323,1.1483624,1.0663476,-1.4669487,0.1483711,-0.55238676,2.1085167,1.128143,1.2833441,-0.49708068,0.8522847,-0.95936316,-0.9046817,-1.6069139,0.52533376,0.16780068,0.7787911,-0.99103355,0.7145319,-0.97931594,1.7431834,-0.8840582,0.034861863,-0.112766996,0.39108518,0.35545006,0.3601647,2.0020015,1.5826824,1.3535051
e,2.5707905,-0.85453105,0.42449114,0.9278094,-0.13686387,0.67171025,-0.823621,0.11760509,-0.5426596,-1.2879624,-0.75739586,0.44284716,0.8545072,-0.048877522,-1.6289918,0.3133313,-0.6231626,-0.36206415,0.58345276,0.6271853,-0.74439174,0.8757097,-0.76823354,-0.070329495,-0.92121273,0.69856745,1.7029644,1.0681324,0.8955079,-0.49757713,0.8622735,0.027021758
